10 32
7 0.15936191 -0.2731085 -0.0748213 0.2935499 0.031799328 -0.19875573 0.42840904 0.21394506 -0.39865077 0.0581742 -0.042539615 -0.25517762 0.08325403 0.5266963 -0.27413034 -0.037482698 -0.066736124 0.30056265 -0.29238218 0.1117332 0.18936801 0.30126894 0.6183759 -0.32942882 0.24285354 -0.10444573 -0.24997142 0.032071885 -0.27079514 -0.44441792 -0.309492 -0.38109973
0 0.3640861 -0.32574588 -0.13938262 0.14015517 0.33837268 -0.15882231 0.3680462 -0.03931039 -0.28565648 0.18005683 -0.27263466 -0.36690527 0.11292235 0.39557725 -0.33357367 0.076770574 -0.050006956 0.3680827 -0.18267694 0.33637354 -0.023123449 0.14705153 0.69427425 -0.36999762 0.21445167 -0.20057638 -0.104848556 0.04618692 -0.037725434 -0.34431985 -0.32318246 -0.32624054
5 0.28984287 -0.29334137 -0.06653601 0.24562566 0.07060885 -0.1534096 0.5003433 0.10350931 -0.5560061 0.03647366 -0.0866024 -0.19280148 0.07554056 0.420898 -0.23140608 0.018771194 0.013884767 0.3428557 -0.23841128 0.3879282 0.08959855 0.2858104 0.56412953 -0.3423397 0.10765334 -0.15402569 -0.2377954 0.12421059 -0.20320474 -0.42282242 -0.2358214 -0.39186808
6 -0.3422962 -0.11008295 0.7383238 0.15844022 -0.4275764 -0.3574096 0.6886157 0.5394452 0.5520871 0.12840697 0.6426599 0.9027392 0.3807571 -0.6671467 -0.81214666 -0.3358339 -0.4376801 1.1496159 0.38776115 0.4628745 0.5692333 0.61804056 0.61697197 -0.81906617 0.20155412 -0.106677085 0.25945756 0.23443064 0.8664589 0.45960274 -0.49131957 0.5579223
2 -0.20216523 0.12090762 0.8434981 -0.0204283 -0.2933251 -0.50093967 0.6633151 0.45003456 0.47167423 0.30285826 0.7418026 0.88670087 0.50054437 -0.6624517 -0.92224497 -0.17848438 -0.3237532 1.1023006 0.38014314 0.2942458 0.4046658 0.5038694 0.7696918 -0.9034335 0.15722044 -0.029299576 0.11190384 0.5634862 0.8517525 0.50785416 -0.3917879 0.581365
9 0.06420728 -0.2563022 -0.1571192 0.11097006 0.22685148 -0.109127484 0.43929857 -0.016018057 -0.11416506 0.26642534 -0.23776962 -0.4393134 0.16416855 0.52968144 -0.33361557 -0.06898761 -0.21036859 0.2956107 -0.17720363 0.038481787 -0.018560234 0.2835529 0.69576144 -0.42886296 0.3070802 -0.19868526 -0.15492016 -0.1521363 -0.11071085 -0.41880617 -0.36107603 -0.36282086
1 0.21416062 -0.32206514 -0.12052744 0.23374285 0.25982043 -0.21192358 0.24574535 0.139713 -0.085691735 0.1972376 -0.1757715 -0.3725505 0.10518891 0.5496459 -0.33459353 0.0069910395 -0.18667388 0.30221748 -0.23887427 0.021028314 0.24218947 0.15857036 0.71423227 -0.32941386 0.3589985 -0.08343451 -0.1419549 -0.113006875 -0.14611784 -0.40414074 -0.45587164 -0.31974435
3 0.30430287 -0.29994202 0.0071755573 0.16731629 0.07819881 -0.1582528 0.55754024 -0.04262842 -0.46803123 0.19592917 -0.06962788 -0.15287621 -0.07606769 0.42727432 -0.1636376 0.088235565 -0.005620687 0.2899068 -0.22156407 0.3862081 0.23015673 0.27694923 0.46552163 -0.28023517 0.10905299 -0.31474835 -0.1850824 0.07072557 -0.152541 -0.45153293 -0.4519436 -0.3953482
8 0.336153 -0.3069049 -0.034281645 0.1498198 0.14571364 -0.19306354 0.5484721 -0.02492824 -0.46301275 0.22234708 -0.03279732 -0.14460057 -0.113279395 0.42291135 -0.16263233 0.1280642 0.046442132 0.29112443 -0.22505382 0.42414287 0.24768746 0.23359475 0.46912804 -0.2530768 0.124660045 -0.34491456 -0.18080229 0.10012236 -0.10351526 -0.43360972 -0.45419502 -0.37768447
4 0.5127264 -0.2958572 -0.15646528 0.3369655 0.3539095 -0.25262797 0.358374 0.20448485 -0.28605777 0.0020076025 -0.06916227 -0.38186973 0.0086335335 0.4762302 -0.32257074 0.036202822 0.07903404 0.289905 -0.18843962 0.38724667 0.12122004 0.00063669734 0.7809076 -0.2297105 0.24120668 -0.13970706 -0.004556114 0.11617543 -0.0019012856 -0.3661204 -0.3267381 -0.1760253
