10 32
7 0.07786671 -0.26617816 -0.04323127 0.31321785 -0.080980934 -0.18157308 0.5399051 0.26034114 -0.42038482 0.040306583 0.086622015 -0.1326662 0.0065150205 0.5028582 -0.20315464 -0.08293591 -0.054856956 0.2911322 -0.26072636 0.18730134 0.29315597 0.36887637 0.5110249 -0.29719448 0.20055757 -0.16143821 -0.24440317 0.0026645532 -0.24054931 -0.45801345 -0.33360982 -0.3577205
0 0.3202287 -0.35863593 -0.03226098 0.28945917 0.14832245 -0.19546542 0.42521665 0.0841817 -0.25593957 0.07755113 -0.16766447 -0.29705727 0.00211996 0.3942409 -0.3364288 0.00892784 -0.061710928 0.3813209 -0.22676185 0.28374228 0.16820675 0.21333595 0.66513675 -0.30540678 0.26565877 -0.24943425 -0.022394193 0.025308738 -0.07113748 -0.35216308 -0.4649897 -0.27010202
5 0.12534031 -0.21888526 -0.124341816 0.36265665 0.020070223 -0.12612817 0.53429776 0.3123247 -0.38699183 -0.090742454 0.0025347907 -0.2906974 0.20291881 0.5114261 -0.3021388 -0.20306645 -0.080160476 0.31765443 -0.168798 0.24776377 0.028375344 0.3129347 0.7120273 -0.39906207 0.18137851 -0.016016133 -0.18411404 -0.0009610573 -0.17509472 -0.43802083 -0.1273435 -0.2777464
2 -0.64988333 -0.41670504 0.51637757 0.4376702 -0.66479665 -0.0007795796 0.45971772 0.61391664 0.85045904 -0.25324908 0.32126337 0.7780926 0.1971628 -0.6817221 -0.5311884 -0.64218235 -0.6792134 1.0133866 0.40971208 0.4637978 0.7053259 0.6830243 0.21713103 -0.5310457 0.27344742 -0.108503066 0.5814182 -0.4504614 0.7857378 0.43167666 -0.54391056 0.5629107
6 -0.5759785 -0.18993823 0.6670413 0.23355684 -0.54832935 -0.15545155 0.54716724 0.5501393 0.82737935 0.00086669077 0.5061218 0.8626768 0.3535976 -0.68711907 -0.67313606 -0.5230385 -0.63926756 1.0508944 0.46864372 0.36855802 0.6306579 0.6463135 0.40614405 -0.7117438 0.22679731 -0.04807041 0.41417348 -0.15864766 0.85956967 0.46867943 -0.5054904 0.6036308
3 0.08999116 -0.35673288 -0.10210794 0.24513897 0.08478693 -0.0822537 0.33685553 0.14177284 -0.26067564 0.08452354 -0.22676755 -0.24692225 0.24466132 0.46131313 -0.29241908 -0.09559988 -0.26293617 0.39955446 -0.19143471 0.1857802 0.14846838 0.3403743 0.6189318 -0.4506921 0.22356483 0.002681239 -0.23825972 -0.1544751 -0.21131918 -0.41711092 -0.27909404 -0.4068893
8 0.0990149 -0.38167682 -0.13480294 0.23940678 0.14185493 -0.08951784 0.28036997 0.15486257 -0.20416726 0.11817608 -0.22950405 -0.24846558 0.23293373 0.49049738 -0.27457586 -0.07666169 -0.28608736 0.38744038 -0.18711247 0.17974077 0.21682106 0.30176112 0.614009 -0.4309747 0.24720027 0.02363655 -0.24174485 -0.20569542 -0.19720094 -0.4278276 -0.31301016 -0.40989462
9 0.33830047 -0.42404085 0.18731733 0.3518015 -0.13195336 -0.13152754 0.34410506 0.007992327 -0.4283539 -0.0011905083 -0.25715804 -0.12188121 -0.017962364 0.33215192 -0.22969034 0.04778282 -0.1576025 0.38924298 -0.30161572 0.26055574 0.36061752 0.32749096 0.4538882 -0.27800265 0.1503249 -0.16686642 -0.10636602 0.020218864 -0.31496263 -0.39768487 -0.55677664 -0.4020061
1 0.17340472 -0.3847484 0.009338751 0.21333955 -0.01947199 -0.19947952 0.4980454 0.07929432 -0.4168033 0.19243686 -0.0072483383 -0.031678777 -0.13180529 0.39821273 -0.16020326 0.08755173 -0.045037784 0.35550863 -0.28866568 0.31092957 0.43078545 0.35434896 0.3796743 -0.25102523 0.19346829 -0.324947 -0.21693635 0.009548782 -0.18145603 -0.41807395 -0.5329534 -0.41736242
4 0.28475273 -0.27271926 -0.13674338 0.30405796 0.23441309 -0.21023463 0.5805987 0.17318274 -0.14410198 0.12867756 0.054340027 -0.34985852 -0.119498104 0.5593515 -0.24879207 -0.0682622 -0.0074301763 0.22785242 -0.14277638 0.3175705 0.2524126 0.13828789 0.68829495 -0.21743505 0.28421262 -0.32496735 0.034426175 -0.07186185 0.048377 -0.4513224 -0.5040628 -0.17406622
